
Cufon.registerFont({"w":565,"face":{"font-family":"MonikaItalic","font-weight":400,"font-style":"italic","font-stretch":"normal","units-per-em":"360","panose-1":"0 0 4 0 0 0 0 0 0 0","ascent":"288","descent":"-72","x-height":"2","bbox":"-195.823 -420 819.192 250","underline-thickness":"7.2","underline-position":"-44.28","slope":"-11","stemh":"13","stemv":"22","unicode-range":"U+0020-U+201D"},"glyphs":{" ":{"w":93},"!":{"d":"30,-46v21,11,-6,46,-17,54v-19,-13,7,-45,17,-54xm174,-294v-28,73,-73,135,-105,204v-4,9,-14,7,-15,-3v7,-40,29,-68,52,-109r53,-96v4,-9,14,-6,15,4","w":53},"\"":{"d":"152,-342v-3,-2,-5,-9,2,-8v35,3,46,29,68,48v12,10,40,21,52,37v-15,11,-52,-23,-71,-35v-10,-6,-26,-21,-51,-42xm203,-341v31,-11,48,27,73,44v8,8,38,23,51,37v0,7,-10,3,-16,0v-39,-19,-78,-50,-108,-81","w":220},"#":{"d":"198,-344v-14,27,-46,73,-78,85v-7,-1,-8,-6,-1,-12v26,-19,30,-36,48,-66v4,-5,22,-15,31,-7xm248,-349v-14,26,-44,75,-78,84v-9,-1,-7,-5,0,-11v23,-18,34,-46,49,-69v5,-4,22,-11,29,-4","w":103},"$":{"d":"148,-109v7,-30,-17,-53,-7,-84v8,-24,30,-39,66,-45v21,-26,22,-48,31,-30v1,10,-10,19,-14,28v35,-4,56,17,33,33v-20,2,4,-24,-23,-22v-43,3,-93,21,-78,65v16,46,9,87,-48,93v-11,11,-16,35,-31,38v-10,-16,12,-28,15,-35v-27,4,-72,-10,-41,-29v10,-6,24,4,12,8v0,0,-12,-1,-8,4v27,14,89,-4,93,-24","w":176},"%":{"d":"126,-117v8,5,11,-8,9,-13v-1,-10,-17,-12,-27,-8v-13,12,0,19,18,21xm59,-105v5,27,52,17,66,-1v-31,-4,-45,-13,-30,-31v-25,8,-38,19,-36,32xm235,-49v-3,-19,-31,-4,-42,-4v0,0,0,-2,2,-3v-23,7,-35,18,-37,30v2,32,56,15,69,-1v7,-9,11,-15,8,-22xm201,-59v22,-19,63,-1,38,27v-12,25,-74,49,-90,16v-3,-28,20,-38,53,-47v0,1,0,3,-1,4xm142,-115v51,2,96,-16,139,-24v1,3,0,6,-5,8r-163,84v-31,15,-50,33,-75,44v-5,-1,-3,-3,0,-6v52,-37,137,-78,199,-111v-41,9,-66,13,-103,15v-17,16,-36,24,-56,24v-36,0,-37,-31,-12,-47v10,-7,22,-14,36,-16v1,0,1,1,0,2v24,-15,59,1,40,27","w":229},"&":{"d":"262,-292v-50,3,-99,45,-82,103v36,-21,121,-51,119,-89v-1,-10,-15,-15,-37,-14xm165,-171v-66,35,-103,44,-116,114v2,77,166,37,206,13v-25,-24,-82,-81,-90,-127xm272,-54v37,-24,61,-50,66,-97v3,-31,-25,-43,-55,-42v-1,-3,8,-12,11,-12v36,-3,63,11,61,46v-3,51,-37,89,-76,113v15,18,22,35,21,61v0,4,-15,15,-18,7v3,-29,-6,-39,-20,-58v-36,18,-105,39,-153,38v-41,-1,-79,-12,-79,-51v0,-70,70,-99,133,-132v-15,-76,48,-124,118,-124v24,0,34,8,36,26v-14,42,-88,76,-135,100v15,53,49,82,90,125","w":308},"'":{"d":"202,-349v-14,28,-46,79,-82,90v-9,-1,-8,-7,-1,-13v26,-18,38,-47,52,-72v4,-5,23,-12,31,-5","w":57},"(":{"d":"40,9v-9,-104,115,-205,212,-224v1,2,-5,8,-6,8v-91,26,-206,117,-192,216v0,4,-3,5,-9,5v-3,0,-5,-2,-5,-5","w":162},")":{"d":"214,-215v-17,124,-105,196,-217,228v0,-3,2,-5,6,-7v109,-41,182,-100,198,-215v0,-4,9,-9,13,-6","w":141},",":{"d":"57,-35v7,0,8,3,5,7v-21,28,-37,66,-73,76v-7,-1,-6,-6,0,-11v16,-15,30,-37,45,-63v3,-6,12,-8,23,-9","w":51},"-":{"d":"51,-73v-7,0,-10,-2,-10,-8v0,-5,5,-8,13,-8v28,3,71,-6,90,5v2,6,-8,11,-14,11r-79,0","w":113},"\u2010":{"d":"51,-73v-7,0,-10,-2,-10,-8v0,-5,5,-8,13,-8v28,3,71,-6,90,5v2,6,-8,11,-14,11r-79,0","w":113},".":{"d":"17,8v-24,-10,2,-51,17,-59v25,10,-1,53,-17,59","w":33},"\/":{"d":"57,-59v-25,33,-37,64,-57,87v-7,-2,-8,-10,-4,-16r221,-325v3,-4,6,-7,9,-3v3,5,3,10,0,15v-27,45,-78,113,-112,162","w":100},"0":{"d":"249,-200v-27,0,-49,15,-73,29v-7,0,-9,-6,-3,-9v47,-52,138,-42,142,28v-13,89,-99,155,-192,155v-48,0,-85,-24,-85,-71v0,-80,67,-109,141,-132v6,3,2,12,-4,13v-72,29,-120,48,-120,117v0,39,29,59,69,59v88,0,175,-59,175,-143v0,-28,-20,-46,-50,-46","w":271},"1":{"d":"171,-196v7,-4,19,-16,24,-3v-29,33,-135,157,-152,195v-6,5,-15,7,-19,1v17,-48,85,-120,125,-168v-51,14,-64,26,-78,18v-1,-11,20,-16,36,-20v29,-8,51,-16,64,-23","w":113},"2":{"d":"90,-138v-9,-8,7,-13,15,-20v52,-30,87,-45,141,-47v65,-4,98,35,59,71v-48,45,-175,80,-249,113v79,-8,136,-17,195,-11v2,13,-13,16,-28,15v-47,0,-116,17,-208,17v-11,0,-10,-10,0,-16v18,-22,307,-110,285,-148v0,-21,-50,-27,-83,-22v-41,7,-78,21,-113,46v-5,4,-9,4,-14,2","w":262},"3":{"d":"264,-68v-17,-38,-115,-32,-174,-31v-8,-3,-4,-9,4,-13v66,-7,149,-14,190,-42v8,-5,11,-11,10,-17v-3,-13,-28,-20,-74,-20v-54,0,-100,11,-137,31v-4,2,-6,1,-8,-1v-2,-4,-1,-7,4,-10v38,-21,108,-36,167,-33v60,3,85,28,47,57v-25,18,-58,26,-95,34v44,1,104,26,68,67v-29,34,-134,58,-203,39v-37,-11,-52,-25,-27,-54v3,-4,7,-5,11,-2v5,2,-12,19,-6,26v46,51,207,17,223,-31","w":255},"4":{"d":"68,-87r152,-13r73,-83v-105,26,-180,59,-225,96xm153,-4v11,-27,30,-48,52,-77r-163,14v-6,0,-9,-1,-10,-3v-1,-12,50,-46,66,-55v55,-32,129,-58,221,-80v10,-3,13,5,8,11r-83,93v20,2,59,-8,65,6v-10,20,-52,7,-80,12v-23,27,-42,52,-54,76v-3,6,-18,11,-22,3","w":269},"5":{"d":"22,-32v-7,-11,9,-25,14,-13v1,30,47,32,75,32v52,0,117,-16,117,-59v0,-62,-122,-53,-165,-26v-18,-7,-5,-19,17,-42v21,-22,38,-49,65,-65v4,0,8,3,4,7v25,-2,91,-10,132,-2v3,9,-15,13,-24,13v-46,0,-88,2,-126,8r-56,64v61,-30,184,-25,166,55v-26,52,-112,72,-183,54v-20,-5,-32,-14,-36,-26","w":223},"6":{"d":"61,-71v3,79,155,67,172,12v15,-48,-23,-71,-66,-71v-44,0,-93,28,-106,59xm45,-72v0,-99,103,-130,220,-140v9,3,2,14,-5,14v-89,0,-180,40,-196,106v36,-54,186,-85,190,11v4,97,-209,116,-209,9","w":234},"7":{"d":"95,-188v68,-12,153,-23,219,-10v-38,52,-146,136,-191,195v-6,8,-29,8,-19,-5v50,-58,118,-122,177,-175v-65,-3,-123,3,-193,13v-5,1,-7,-1,-8,-5v-1,-6,4,-11,15,-13","w":232},"8":{"d":"54,-64v-19,52,82,60,129,41v43,-17,47,-41,10,-66v-9,-7,-25,-18,-50,-34v-29,15,-80,34,-89,59xm108,-157v-9,-69,134,-64,192,-46v-14,18,-61,-3,-83,0v-36,5,-94,8,-88,44v2,9,8,16,19,22v35,-16,88,-36,160,-60v4,-1,6,0,7,4v1,10,-13,10,-22,14r-132,49v55,34,114,74,37,113v-51,26,-147,26,-162,-24v-3,-43,48,-66,95,-89v-13,-7,-21,-15,-23,-27","w":238},"9":{"d":"263,-148v-10,-89,-190,-70,-178,16v5,39,61,50,103,38v34,-10,57,-28,69,-50v3,-2,4,-3,6,-4xm68,-135v-1,-96,209,-123,212,-15v-17,91,-106,142,-189,150v-4,0,-6,-1,-6,-4v-1,-4,11,-13,15,-11v73,-8,131,-49,160,-111v-22,27,-68,51,-113,51v-42,0,-78,-19,-79,-60","w":232},":":{"d":"59,-79v-22,-7,1,-48,16,-54v23,8,-4,52,-16,54xm25,-14v-22,-10,3,-48,16,-54v24,9,-5,52,-16,54","w":38},";":{"d":"51,-54v-1,-21,9,-18,17,-37v4,-11,18,-10,18,2v0,23,-13,39,-26,45v-5,0,-8,-4,-9,-10xm34,-25v2,-5,23,-14,29,-5v-19,30,-40,68,-74,79v-6,-1,-7,-6,-1,-11v16,-14,31,-35,46,-63","w":54},"?":{"d":"66,-50v24,11,-3,53,-18,58v-24,-10,1,-54,18,-58xm111,-258v37,-31,79,-58,121,-39v28,13,13,55,-10,65v-37,27,-88,52,-116,85v-23,26,-7,52,29,44v-9,26,-65,25,-60,-11v9,-65,107,-89,147,-141v9,-20,-9,-36,-28,-36v-15,0,-37,11,-66,32v-5,3,-13,6,-17,1","w":137},"@":{"d":"243,-119v-42,-14,-99,16,-102,45v12,23,50,-5,63,-15xm62,-78v0,81,133,75,202,60v-6,18,-51,17,-79,18v-78,2,-160,-25,-131,-103v26,-70,184,-112,260,-58v64,45,-13,112,-66,112v-36,0,-40,-24,-22,-46v-32,26,-60,38,-83,38v-13,0,-20,-3,-17,-14v10,-41,79,-80,129,-56v2,-2,11,-11,16,-7v1,1,0,3,-1,5v-30,28,-44,49,-41,60v2,7,10,10,23,10v41,1,71,-22,73,-60v2,-33,-49,-62,-95,-59v-75,6,-168,28,-168,100","w":303},"A":{"d":"214,8v-102,0,-181,-79,-140,-178v48,-117,186,-182,348,-182v77,0,195,42,146,111v-7,10,-24,20,-43,25v-11,-14,42,-31,34,-41v-6,-64,-88,-79,-156,-79v-138,0,-270,64,-307,159v-38,96,27,170,133,170v76,0,224,-62,287,-132v6,-7,23,-4,14,5v-15,16,-54,49,-54,72v0,26,12,38,35,38v23,0,50,-12,79,-39v7,-6,23,-2,12,7v-31,24,-63,47,-99,49v-37,2,-63,-40,-38,-73v-66,39,-159,88,-251,88"},"B":{"d":"258,-313v-61,94,-135,183,-186,284v0,6,-19,10,-23,4v51,-106,125,-188,185,-284v2,-5,17,-8,24,-4xm485,-99v0,-75,-136,-76,-215,-83v11,-20,72,-9,90,-17v37,-8,79,-21,71,-63v-3,-16,-16,-30,-34,-42v-75,-54,-260,-58,-367,-23v-56,19,-93,30,-98,72v-1,10,33,13,9,21v-23,8,-38,-6,-31,-29v13,-40,64,-59,117,-75v125,-38,338,-34,409,37v13,13,22,27,20,53v-12,39,-49,48,-95,59v57,3,146,32,146,84v0,18,-10,33,-28,49v-67,58,-271,59,-366,20v-1,-5,13,-12,18,-11v85,30,261,40,327,-10v18,-13,27,-26,27,-42","w":480},"C":{"d":"666,-284v-1,26,-34,52,-56,44v-1,-8,15,-8,20,-16v19,-16,11,-45,-6,-58v-35,-28,-111,-38,-185,-32v-139,12,-268,63,-315,172v-45,104,53,166,163,166v82,0,139,-31,208,-55v12,0,11,5,3,9v-88,39,-165,59,-230,59v-96,0,-179,-39,-179,-134v0,-106,107,-154,198,-191v90,-37,250,-58,341,-14v26,13,38,30,38,50","w":540},"D":{"d":"3,-321v174,-56,498,-56,498,141v0,170,-248,222,-410,147v-6,12,-16,43,-36,27v48,-95,128,-194,186,-284v2,-5,18,-9,24,-4r-165,245v144,73,375,41,375,-126v0,-197,-366,-192,-514,-114v-37,20,-52,40,-48,59v3,16,18,21,34,24v-25,28,-76,-8,-52,-44v18,-27,52,-52,108,-71","w":452},"E":{"d":"220,-210v-52,-6,-75,-58,-35,-93v72,-62,253,-94,362,-46v22,9,33,21,33,35v0,13,-15,26,-30,19v19,-20,-6,-38,-28,-46v-95,-31,-208,-21,-288,22v-35,18,-59,44,-36,77v17,26,65,21,102,22v-2,9,-16,14,-31,12v-78,9,-136,36,-179,77v-62,59,-6,128,82,128v62,0,135,-26,221,-78v4,-3,31,-4,16,5v-95,56,-175,86,-243,86v-85,0,-159,-51,-113,-122v34,-52,103,-80,167,-98","w":417},"F":{"d":"111,-342v3,-14,43,-42,63,-33v1,13,-35,13,-34,24v9,15,85,18,126,17v28,0,66,-1,115,-4v4,-11,17,-31,33,-18r-12,16v50,-3,118,-8,203,-16v4,0,7,0,8,2v0,8,-9,16,-14,16r-209,18r-78,120v77,-4,150,-6,220,-7v4,0,5,2,3,6v-2,5,-10,6,-14,9v-64,0,-137,3,-219,7r-44,67v-16,26,-30,49,-41,69v3,-5,16,-6,24,-4v-4,10,-15,13,-26,28v-14,19,-19,36,-46,27v22,-56,76,-131,111,-186v-41,2,-102,8,-186,17v-4,0,-7,0,-7,-2v-1,-7,8,-11,13,-13v80,-8,143,-13,190,-16r78,-121r-155,5v-68,0,-102,-9,-102,-28","w":380},"G":{"d":"113,-148v-24,82,29,135,114,135v86,0,205,-62,268,-104v21,-14,73,-31,89,-7v-2,23,-25,47,-38,65r-174,245v13,-9,20,-14,33,-9v-26,22,-53,43,-75,68v-6,2,-10,5,-18,5v-10,-3,1,-12,6,-19r239,-338v3,-8,5,-18,-8,-17v-69,18,-116,64,-183,87v-70,24,-111,40,-164,36v-67,-5,-126,-44,-118,-115v18,-166,213,-240,408,-240v76,0,168,15,168,78v0,29,-34,47,-64,52v-7,0,-6,-6,-2,-9v18,-7,40,-14,40,-38v0,-56,-69,-71,-160,-71v-164,0,-324,66,-361,196","w":554},"H":{"d":"255,-26v-6,8,-10,19,-12,28v4,-9,12,-15,12,-28xm127,-174v61,19,123,53,140,89r60,-90xm468,-332v-28,34,-65,74,-111,144r125,0r130,-170v2,-4,18,-7,22,-3v-40,61,-90,112,-131,173r91,2v-14,21,-68,7,-101,11v-36,49,-65,90,-87,124v8,-7,24,-24,39,-15v-26,25,-33,24,-64,62v-2,3,-19,9,-22,2v30,-66,75,-116,113,-173r-124,0v-27,40,-52,77,-72,113v13,41,-13,93,-54,76v-3,-27,18,-48,30,-74v-23,-59,-119,-111,-204,-111v-14,0,-15,-5,-4,-10r9,-3r283,-4v42,-65,79,-111,110,-141v2,-4,16,-5,22,-3","w":488},"I":{"d":"63,-66v10,40,77,44,132,44v124,0,226,-48,309,-115v-69,-6,-123,-8,-163,-8v-101,0,-264,6,-278,79xm522,-187v-13,24,-60,6,-60,-20v0,-39,20,-61,50,-88v35,-30,74,-56,128,-56v53,0,25,56,9,80v-32,48,-68,89,-109,123v17,2,54,3,84,10v1,2,-1,5,-6,8v-29,8,-61,-5,-93,-5v-105,79,-208,126,-350,126v-75,0,-120,-12,-133,-51v-6,-17,7,-37,36,-52v99,-51,290,-51,441,-38v46,-39,95,-93,123,-151v9,-19,7,-37,-16,-35v-56,4,-142,58,-142,118v0,25,15,32,38,31","w":547},"J":{"d":"23,173v-8,26,9,49,32,31v79,-63,159,-178,214,-255v-106,43,-180,111,-231,190v-8,14,-13,25,-15,34xm105,-226v-17,33,20,50,49,40v12,1,9,8,-1,12v-33,12,-84,6,-77,-37v40,-93,142,-149,260,-149v124,0,60,141,20,204v-15,23,-28,50,-45,76r92,-28v6,0,6,6,1,9v-27,14,-68,20,-104,35v-54,80,-141,201,-216,266v-22,20,-41,28,-56,28v-33,2,-35,-41,-22,-68v51,-104,152,-183,274,-231v44,-75,95,-131,105,-223v6,-54,-56,-59,-108,-49v-72,14,-143,60,-172,115","w":335},"K":{"d":"26,-6v-1,3,-22,11,-25,2r212,-324v1,-3,13,-6,22,-5v3,0,5,2,3,4xm324,-1v-110,27,-240,-26,-194,-137v48,-117,219,-194,378,-203v58,-2,79,26,49,54v-10,9,-22,12,-26,3v8,-6,23,-14,18,-26v-2,-17,-33,-22,-63,-19v-135,12,-286,78,-334,188v-36,82,37,135,122,135v58,0,123,-22,195,-66v3,-3,15,-4,19,0v-50,38,-113,59,-164,71","w":460},"L":{"d":"19,-20v43,12,111,7,148,-7r-77,1v-36,1,-59,3,-71,6xm532,-346v-160,7,-213,233,-321,304r126,-2v80,2,161,-1,222,13v2,4,-15,12,-18,11v-106,-10,-204,-12,-350,-8v-34,21,-80,28,-137,28v-57,0,-81,-17,-41,-30v39,-12,132,-9,178,-11v110,-80,157,-318,357,-319v50,0,96,17,110,54v7,16,-14,49,-34,37v36,-46,-37,-79,-92,-77","w":524},"M":{"d":"415,0v-22,0,-37,-14,-36,-39v3,-68,69,-135,94,-194r-186,187v-31,30,-52,45,-62,45v-17,-10,-8,-32,1,-49v33,-58,141,-173,157,-221v-1,-3,-5,-2,-8,0v-88,76,-178,174,-261,258v-11,11,-30,19,-37,6v24,-82,87,-149,122,-224v40,-89,-48,-127,-145,-114v-66,9,-115,30,-147,66v-16,18,-22,33,-20,45v3,22,25,14,38,19v-7,23,-64,9,-62,-12v9,-86,137,-129,240,-133v131,-5,148,80,100,161r-80,134v-7,12,-19,31,-22,44r102,-107v39,-41,75,-75,106,-104v38,-36,64,-53,78,-53v23,0,17,22,4,43v-33,53,-118,147,-141,188v-4,9,-8,19,-9,31r207,-206v18,-16,31,-24,40,-24v19,0,7,28,0,37v-40,55,-92,147,-86,175v0,18,7,27,21,27v18,0,47,-20,86,-61v2,-4,17,-7,22,-3v-20,29,-79,78,-116,78","w":477},"N":{"d":"225,-287v16,111,-94,185,-123,276v10,8,38,-32,50,-44r191,-198v13,-15,37,-21,46,-4v2,29,-22,56,-35,78v-42,70,-52,62,-64,134v-4,21,12,36,28,35v20,0,44,-15,74,-45v2,-4,19,-6,23,-2v-37,41,-72,62,-116,58v-56,-5,-24,-91,-7,-119v27,-45,59,-76,76,-133v-6,0,-7,2,-17,13r-224,233v-9,11,-42,30,-52,11v20,-83,128,-160,128,-265v0,-97,-125,-99,-207,-65v-57,23,-90,46,-111,89v-15,32,10,61,45,47v3,0,5,2,6,4v-23,27,-88,10,-80,-28v21,-105,201,-180,325,-129v24,10,41,30,44,54","w":392},"O":{"d":"544,-277v2,16,-13,35,-30,25v35,-55,-59,-91,-118,-88v-130,5,-307,74,-307,205v0,116,144,167,261,115v102,-45,173,-86,216,-170v19,-38,9,-101,-25,-114v-1,-2,2,-4,7,-7v35,-10,49,28,51,64v2,42,-17,82,-55,120v-69,68,-182,138,-311,141v-106,3,-197,-79,-156,-189v38,-102,185,-179,323,-179v69,0,138,19,144,77","w":524},"P":{"d":"233,-257v17,-16,21,-55,55,-48v-65,97,-148,195,-203,299v0,4,-22,11,-23,2v43,-88,117,-171,171,-253xm204,-121v131,7,285,6,288,-112v-53,-124,-304,-123,-453,-83v-54,14,-99,33,-133,58v-33,25,-48,50,-26,74v8,14,28,-2,36,7v-9,19,-68,17,-68,-13v-4,-17,4,-34,23,-55v92,-105,462,-152,606,-48v48,35,47,95,6,131v-54,47,-176,64,-291,54v-3,0,-5,-2,-5,-3v-2,-3,14,-11,17,-10","w":442},"Q":{"d":"198,-18r206,-5v55,0,100,3,136,3v8,0,5,6,1,6v-3,1,-2,-2,-2,-4v-4,4,-253,19,-480,15v1,-16,36,-9,55,-12v126,-20,263,-41,365,-85v71,-30,105,-56,113,-124v-13,-124,-194,-145,-316,-103v-71,24,-124,52,-157,86v-19,20,-28,38,-28,53v1,31,27,44,56,35v2,0,3,1,4,2v-3,12,-15,12,-33,13v-46,3,-61,-41,-41,-77v40,-71,215,-146,331,-145v120,2,245,61,195,177v-28,64,-145,112,-243,132v-19,4,-72,16,-162,33","w":538},"R":{"d":"267,-306v2,-5,18,-7,24,-3v-64,99,-135,186,-190,294v0,5,-17,8,-23,4v50,-105,128,-199,189,-295xm232,-357v126,3,294,21,288,136v-32,89,-155,103,-292,110r143,63r148,62v1,5,-11,13,-20,10v-88,-31,-187,-75,-298,-127v-8,-4,-13,-7,-13,-10v-2,-6,7,-10,27,-10v128,-2,213,-21,255,-55v32,-26,37,-65,9,-94v-107,-111,-526,-99,-589,41v-15,33,17,44,49,45v-11,23,-75,7,-74,-16v-5,-15,7,-36,17,-49v59,-74,204,-110,350,-106","w":528},"S":{"d":"164,-217v5,-118,115,-167,238,-167v67,0,110,14,93,58v-5,12,-21,20,-31,10v23,-31,-6,-59,-66,-56v-115,6,-205,45,-210,152v-3,45,34,96,34,157v0,107,-132,132,-249,138v-69,3,-111,-26,-68,-58v13,-10,29,-17,40,-8v-4,10,-43,17,-34,27v10,20,34,26,68,26v116,0,219,-30,219,-120v0,-49,-36,-103,-34,-159","w":289},"T":{"d":"-12,-338v3,-16,41,-38,63,-32v-3,12,-56,21,-22,31v53,15,138,11,229,5v7,-10,13,-26,33,-20r-11,19r202,-16v5,0,8,0,8,2v0,8,-7,14,-14,15r-209,19r-118,181v-28,44,-46,74,-54,90v4,-4,17,-9,24,-3v-17,13,-33,36,-47,53v-1,4,-23,6,-26,1v54,-111,136,-216,199,-321v-41,4,-108,5,-155,5v-68,0,-102,-10,-102,-29","w":159},"U":{"d":"343,0v-97,0,-8,-116,18,-146r74,-87r-180,156v-37,33,-107,80,-145,73v-32,-6,-11,-58,1,-77v31,-50,85,-104,91,-171v-16,-146,-271,-97,-335,-24v-20,23,-33,40,-33,57v0,22,13,38,34,33v17,-4,15,9,3,12v-34,10,-73,-5,-66,-36v24,-103,150,-150,277,-150v81,0,147,25,147,97v0,95,-110,140,-110,230v0,10,3,15,11,15v88,-23,197,-157,271,-208v16,-12,39,-37,60,-38v9,0,12,9,7,17v-33,56,-116,127,-140,187v-9,23,-1,47,23,46v17,0,35,-10,54,-30v2,-4,21,-8,26,-3v-25,28,-51,47,-88,47","w":387},"V":{"d":"-138,-212v1,29,22,41,46,45v2,7,-11,10,-20,10v-41,0,-66,-48,-37,-82v46,-55,117,-89,205,-89v98,0,194,46,152,141v-24,56,-81,107,-92,168v6,12,18,5,30,-3v132,-90,293,-305,469,-362v4,0,5,0,5,2v1,3,-1,6,-7,9v-164,78,-229,164,-368,288v-61,55,-102,85,-127,85v-48,0,-9,-62,3,-82v26,-44,74,-78,74,-140v0,-73,-72,-96,-144,-96v-90,0,-171,38,-189,106","w":374},"W":{"d":"-126,-192v-9,20,-46,11,-49,-9v-3,-15,5,-34,28,-57v54,-52,119,-80,215,-80v130,0,189,44,152,141v-24,63,-86,108,-109,172v21,-7,41,-31,59,-47r233,-210v9,-10,28,-16,34,-3v0,26,-26,50,-39,70r-119,177v-5,9,-9,14,-4,17v124,-89,227,-205,350,-295v47,-35,89,-57,134,-66v11,-2,15,17,3,18v-169,55,-303,222,-436,324v-30,24,-51,35,-65,35v-13,0,-14,-8,-7,-22v43,-86,116,-164,162,-244v-1,0,-7,3,-14,10r-271,245v-17,15,-35,25,-45,5v2,-41,43,-75,63,-106v31,-49,57,-66,57,-120v0,-80,-103,-97,-190,-86v-77,9,-152,46,-168,116v-3,12,17,12,26,15","w":506},"X":{"d":"685,-352v0,7,-15,12,-20,10v-91,31,-165,112,-233,169v21,76,37,159,111,159v26,0,51,-11,77,-31v3,-3,18,-5,20,0v-62,63,-170,65,-202,-27r-28,-82v-102,81,-187,154,-324,158v-19,0,-13,-7,0,-12v132,-4,224,-83,320,-164v-20,-84,-56,-150,-157,-148v-65,1,-134,21,-177,51v-33,23,-46,46,-43,71v3,21,20,22,37,25v-14,22,-67,6,-63,-24v12,-89,142,-136,245,-138v106,-2,162,55,179,145r82,-71v41,-35,125,-94,162,-94v10,0,14,0,14,3","w":586},"Y":{"d":"118,-35v-2,19,16,25,30,16v78,-44,184,-123,245,-194v15,-18,35,-27,47,-10v2,6,-5,16,-9,22r-272,354v17,-10,32,-40,58,-32v-20,22,-61,54,-82,68v-9,3,-15,3,-16,-2v-2,-13,27,-45,37,-59r90,-120r172,-221v-65,71,-163,149,-257,202v-23,14,-60,20,-68,-6v11,-89,118,-124,118,-225v0,-65,-57,-91,-128,-94v-89,-3,-189,41,-225,105v-12,22,4,50,29,44v5,-1,8,0,8,2v-10,21,-73,14,-64,-22v0,-23,14,-45,42,-67v63,-50,133,-75,211,-75v87,0,158,32,153,103v-6,88,-93,142,-119,211","w":351},"Z":{"d":"-15,-220v-2,25,12,44,36,33v6,0,9,1,9,3v1,3,-5,5,-15,9v-44,19,-65,-25,-49,-65v36,-86,224,-97,372,-91v71,3,115,-12,158,-24v5,2,7,3,3,7r-362,313r-25,24v103,-13,236,-8,350,-6v20,0,19,-19,41,-8v-10,32,-55,26,-94,25r-114,-1r-193,5v-11,0,-17,-2,-18,-6v-1,-3,11,-18,39,-42r332,-287v-58,21,-161,17,-240,17v-112,0,-223,6,-230,94","w":467},"a":{"d":"176,-126v2,12,-17,29,-29,20v1,-4,13,-10,10,-15v-50,-3,-120,53,-132,106v33,7,93,-51,116,-76v2,-3,16,-6,20,-2v-21,28,-49,45,-47,82v27,-8,59,-48,96,-48v1,1,0,3,-3,5v-43,23,-65,48,-101,59v-23,-1,-15,-24,-6,-41v-35,25,-59,37,-73,37v-34,-9,-15,-34,9,-64v37,-46,71,-73,124,-73v11,0,16,4,16,10","w":173},"b":{"d":"126,-98v-14,4,-30,33,-17,48v16,-23,28,-37,17,-48xm225,-296v-61,48,-131,139,-157,203v58,-66,93,-97,151,-180v6,-8,13,-18,6,-23xm116,-45v40,0,56,-29,87,-29v-12,17,-75,39,-99,41v-20,14,-72,73,-94,35v9,-93,69,-154,119,-222v45,-62,80,-90,101,-90v11,0,14,10,9,20v-28,60,-156,195,-198,236v-9,19,-13,34,-13,44v-1,14,8,15,17,10v18,-10,32,-22,42,-35v-37,-21,15,-80,41,-74v10,0,15,4,15,13v0,13,-9,30,-27,51","w":146},"c":{"d":"194,-82v-48,46,-97,86,-162,97v-37,-4,-32,-43,-9,-68v28,-32,71,-79,122,-79v12,0,18,4,21,12v4,7,-15,36,-43,41v-9,0,-11,-2,-4,-6v15,-12,28,-19,31,-35v-1,-4,-6,-4,-15,-1v-44,15,-117,67,-116,114v1,6,6,8,14,8v30,2,124,-62,141,-81v1,-2,16,-6,20,-2","w":134},"d":{"d":"152,-125v-14,17,-40,8,-62,24v-28,20,-56,38,-59,79v0,5,1,7,5,7v44,-18,126,-88,162,-142v40,-59,77,-106,101,-144v0,-3,18,-9,20,-2r-193,275v-10,10,-12,47,-36,32v11,-29,37,-55,52,-81v-50,44,-73,67,-115,77v-11,0,-16,-9,-16,-21v6,-62,80,-109,141,-104","w":158},"e":{"d":"43,-72v11,13,45,-5,57,0v-17,19,-76,41,-78,68v0,7,3,11,9,11v29,0,127,-77,149,-100v3,-3,11,-5,16,-3v-32,39,-80,66,-121,97v-16,12,-32,17,-45,18v-36,2,-29,-31,-9,-50v9,-9,21,-18,34,-26v-28,2,-42,-13,-18,-34v20,-17,62,-40,103,-41v24,-1,20,10,7,20v-12,9,-21,15,-29,8v0,-6,33,-15,15,-17v-27,3,-102,36,-90,49","w":120},"f":{"d":"25,28v-33,49,-78,105,-101,160v-2,4,-1,6,3,6v52,-21,94,-93,98,-166xm9,-44v20,-6,20,8,35,17r195,-274v1,-4,17,-7,21,-3r-201,282v41,5,63,-17,102,-58v1,-4,16,-6,19,-2v-27,38,-77,77,-130,73v-9,8,-3,18,-4,34v-6,83,-58,179,-127,179v-8,0,-12,-6,-10,-14v6,-25,83,-144,113,-186v-2,-12,-7,-26,-17,-41v-2,-2,-1,-5,4,-7","w":120},"g":{"d":"-66,192v24,-2,109,-122,138,-160v-57,42,-122,89,-142,157v1,2,2,3,4,3xm32,-10v28,1,79,-63,107,-59v18,2,12,15,1,30r-24,33v14,-6,16,-12,23,-7v-6,17,-24,15,-37,27v-42,59,-76,103,-102,133v-36,42,-63,64,-80,64v-18,0,-12,-17,-5,-34v29,-63,88,-118,174,-168v12,-21,30,-37,39,-62v-29,12,-71,56,-102,54v-25,4,-23,-18,-15,-34v22,-43,84,-105,152,-93v17,19,-16,37,-34,40v-5,0,-8,-1,-9,-3v8,-7,27,-14,28,-25v-41,-17,-122,56,-122,99v0,3,2,5,6,5","w":135},"h":{"d":"218,-77v-24,38,-96,94,-134,97v-15,1,-14,-9,-11,-20v13,-34,42,-55,58,-87r-122,84v-4,5,-18,7,-22,2v9,-20,22,-35,34,-52r171,-246v0,-3,18,-9,20,-2r-152,218v-11,16,-23,34,-36,56v39,-25,87,-66,129,-83v15,5,6,15,-5,30v-22,30,-42,47,-56,87v1,1,2,2,3,2v42,-15,72,-47,114,-86v2,-1,7,-2,9,0","w":169},"i":{"d":"89,-149v3,-8,18,-27,32,-19v-3,5,-20,30,-32,19xm136,-83v-25,32,-79,74,-120,83v-14,-1,-16,-15,-10,-28v10,-20,39,-58,59,-82v1,-4,16,-6,19,-2v-23,33,-52,53,-66,97v2,6,8,3,13,2v24,-10,54,-32,91,-67v2,-2,10,-6,14,-3","w":71},"j":{"d":"94,-156v4,-6,18,-27,30,-18v-4,9,-17,27,-30,18xm-21,31v-59,62,-95,81,-117,145v19,11,42,-30,54,-48xm131,-118v2,-2,9,-6,12,-3v-30,37,-88,64,-116,104v-53,74,-85,134,-111,169v-20,27,-38,40,-52,40v-36,-8,-12,-31,11,-63v31,-42,77,-90,135,-148r71,-108v1,-3,6,-5,14,-5v4,0,4,1,4,3v-11,18,-29,43,-52,77v35,-23,63,-44,84,-66","w":71},"k":{"d":"118,-112v-34,14,-57,43,-82,70v33,-13,65,-40,82,-70xm22,-27v-5,5,-16,38,-37,28r191,-295v0,-3,17,-9,19,-2r-144,218v30,-31,56,-47,78,-47v20,0,8,15,-3,30v-23,27,-54,48,-92,63r97,102v-2,5,-11,8,-16,4","w":96},"l":{"d":"219,-261v10,-15,21,-24,14,-28v-54,25,-140,137,-175,196v57,-46,111,-102,161,-168xm257,-300v2,20,-14,32,-23,44v-67,92,-109,126,-192,191v-5,12,-29,47,-16,58v43,-20,80,-58,128,-94v6,-3,12,-7,16,-4v-39,38,-82,69,-126,99v-14,10,-37,18,-39,-5v23,-88,140,-237,202,-276v23,-14,35,-25,50,-13","w":105},"m":{"d":"199,-103r-59,86v8,7,20,-10,47,-28v15,-10,17,-26,37,-23v-13,16,-86,81,-106,62v1,-25,32,-43,37,-65r-34,26v-52,35,-65,56,-81,50v10,-29,42,-52,60,-80v-38,27,-74,56,-109,86v-2,3,-15,6,-19,2v38,-52,65,-75,95,-132v-18,8,-22,13,-30,10v16,-13,39,-31,50,-19v-1,22,-41,74,-55,94v35,-24,70,-60,110,-77v5,3,0,5,-5,13r-55,70r99,-74v3,-3,15,-5,18,-1","w":186},"n":{"d":"190,-71v-33,31,-61,61,-109,70v-18,-1,-9,-20,-3,-31v3,-5,17,-26,42,-63v-32,23,-61,50,-90,80v-12,13,-23,20,-30,19v-9,-7,9,-22,14,-30v10,-17,46,-68,57,-99v-15,5,-27,28,-48,22v24,-21,49,-44,67,-27v-1,23,-28,56,-40,78v29,-28,49,-40,74,-60v7,-5,20,-9,25,-3v-13,35,-47,60,-59,98v23,17,62,-50,100,-54","w":144},"o":{"d":"130,-112v-9,-2,-46,32,-41,49v1,5,6,7,14,6v14,-19,27,-27,31,-51v0,-2,-2,-4,-4,-4xm142,-126v34,7,9,32,-12,61v20,0,51,-34,71,-32v-21,22,-52,43,-87,50v-21,21,-64,49,-88,49v-19,0,-29,-13,-23,-33v8,-26,83,-109,113,-95v1,3,-2,5,-8,8v-31,16,-88,56,-90,101v15,20,60,-17,71,-27v-21,3,-27,-11,-21,-29v7,-21,53,-57,74,-53","w":135},"p":{"d":"59,-27v-3,7,-20,14,-10,16v47,-18,101,-52,111,-98v-2,-6,-10,-7,-17,-5v-113,47,-172,178,-247,263v-3,4,-17,11,-19,2r254,-355v2,-5,17,-9,22,-4v-29,47,-67,92,-98,138v24,-22,74,-59,98,-56v16,-1,24,4,27,13v11,36,-88,109,-147,114v-6,0,-9,-2,-10,-5v1,-12,15,-28,36,-23","w":139},"q":{"d":"159,-118v0,15,-29,34,-47,28v2,-6,27,-17,24,-26v-46,-6,-117,54,-118,101v1,3,3,4,6,3v26,-1,78,-60,105,-59v17,0,13,15,5,26r-147,211v27,-16,50,-35,68,-56v1,-4,16,-6,19,-2v-34,38,-71,60,-109,91v-3,3,-8,3,-13,3v-4,0,-5,-1,-4,-4r158,-229v7,-11,14,-18,6,-21v-34,19,-57,48,-95,51v-24,2,-24,-16,-13,-36v31,-54,78,-90,135,-93v14,0,20,4,20,12","w":123},"r":{"d":"-37,15r102,-105v4,-30,40,-77,60,-64v-4,22,-19,32,-40,58v30,9,45,-23,66,-18v-15,31,-61,64,-66,97v23,11,37,-10,62,-27v23,-16,40,-37,66,-50v6,1,5,4,0,8v-35,28,-79,82,-127,87v-27,3,-20,-19,-7,-40v5,-9,30,-39,41,-51v-13,8,-30,9,-47,7v-21,23,-54,55,-97,97v-4,4,-10,6,-13,1","w":145},"s":{"d":"125,-129v-18,52,-20,134,-86,129v-31,-3,-18,-22,6,-41v3,-3,11,-6,14,-2v-1,6,-27,21,-19,26v43,-13,49,-54,65,-99r-92,78v-9,7,-13,10,-20,7v35,-39,77,-68,120,-101v9,-22,27,-42,50,-40v-3,22,-22,34,-38,43","w":93},"t":{"d":"-32,-216v-2,-2,8,-9,9,-8r187,-5v20,-18,25,-56,59,-58v-11,22,-29,38,-42,58r162,3v1,2,-8,8,-9,7r-159,-2r-79,103r-57,87v6,-5,13,-10,19,-5v0,3,-39,45,-50,34v-2,-3,0,-8,4,-15r62,-94r83,-110","w":68},"u":{"d":"175,-125v-7,18,-83,100,-64,110v30,-13,58,-35,85,-63v3,-4,12,-6,14,-2v-19,31,-81,75,-112,80v-25,-8,7,-51,21,-73v-29,21,-57,61,-95,69v-37,-26,37,-84,49,-112v-11,4,-23,11,-36,9v3,-14,48,-29,65,-27v-17,32,-85,110,-70,114v50,-23,85,-68,124,-103v3,-4,15,-6,19,-2","w":157},"v":{"d":"181,-150v-13,3,-28,20,-22,31xm39,-112v6,-16,37,-33,48,-16v-3,36,-42,73,-55,108v42,-18,82,-51,113,-82v-26,-25,29,-71,52,-71v22,15,-17,47,-29,61v10,9,26,-11,35,-5v-2,14,-31,19,-46,18v-34,33,-95,90,-143,99v-21,-8,9,-34,12,-46v25,-43,40,-52,39,-76v-4,-2,-19,21,-26,10","w":150},"w":{"d":"263,-142v-6,0,-17,19,-16,28v5,-6,11,-16,16,-28xm67,-106r-22,8v0,-16,37,-27,51,-33v5,24,-36,44,-47,68v-7,16,-22,24,-17,40v18,10,86,-58,106,-78v20,-20,23,-36,38,-27v1,3,-7,12,-23,28v-16,25,-42,58,-45,93v1,4,3,5,8,5v31,-1,92,-65,112,-92v-6,-5,-4,-12,1,-21v18,-29,25,-45,46,-48v10,1,7,11,3,22v-4,10,-12,21,-22,34v12,0,24,-17,33,-8v-5,15,-26,17,-43,22v-30,30,-98,103,-141,106v-12,0,-18,-6,-18,-18v0,-13,9,-33,27,-61v-33,24,-82,74,-105,51v3,-41,38,-64,58,-91","w":227},"x":{"d":"89,-133v22,3,17,26,9,49v46,-32,70,-56,101,-56v0,7,-4,8,-10,12v-30,10,-69,38,-98,62v-7,20,-11,34,-9,41v4,15,17,11,31,3v36,-19,64,-39,85,-59v3,-4,11,-5,16,-3v-16,27,-114,85,-133,85v-21,0,-23,-27,-15,-47v-32,25,-65,61,-107,71v-2,0,-3,-1,-3,-2v0,-10,11,-15,21,-17v35,-18,66,-47,97,-71v10,-30,19,-42,5,-52v-4,-5,-28,25,-40,16v0,-7,42,-36,50,-32","w":157},"y":{"d":"-87,194v23,-1,119,-132,149,-173v-50,31,-106,87,-135,129v-15,23,-25,34,-14,44xm92,-130v-15,24,-51,64,-59,87v6,5,12,0,24,-7v28,-16,71,-48,102,-83v15,-17,25,-29,39,-21v-5,28,-68,104,-89,135v12,-6,19,-9,21,-9v7,3,0,12,-5,14v-5,2,-15,8,-31,16v-41,58,-78,105,-110,143v-39,46,-67,69,-85,69v-19,0,-14,-18,-6,-36v32,-69,96,-129,187,-181v28,-38,51,-73,72,-104v-62,53,-105,80,-128,81v-27,-6,-5,-23,11,-52v17,-16,26,-52,57,-52","w":139},"z":{"d":"-71,180v23,16,91,-58,112,-80v22,-24,36,-46,44,-75v-58,27,-119,86,-151,138v-4,8,-5,14,-5,17xm151,-130v3,25,-66,72,-82,86v31,-3,46,16,41,46v17,-5,35,-17,50,-14v-6,19,-39,17,-53,27v-23,70,-112,169,-186,183v-11,2,-16,-6,-12,-16v30,-68,111,-141,180,-170v16,-53,-41,-45,-70,-27v-7,-3,-2,-11,4,-13v25,-10,92,-64,106,-92v-30,-13,-75,23,-93,43v-1,3,-16,8,-18,3v23,-30,78,-65,116,-65v10,0,16,3,17,9","w":127},"\u00a0":{"w":93},"\u00a2":{"d":"162,-175v13,-13,31,-22,35,-39v-1,-4,-6,-4,-15,-1v-44,17,-116,65,-116,114v1,6,7,8,15,8v31,1,121,-61,140,-81v2,-2,16,-6,20,-2v-59,55,-114,91,-152,96v-9,11,-28,51,-37,47v-10,-21,15,-31,20,-47v-14,-2,-23,-18,-19,-36v9,-38,74,-93,119,-107v9,-9,23,-49,33,-42v10,16,-11,29,-16,39v14,0,22,4,24,11v5,8,-23,46,-51,40","w":167},"\u00ad":{"d":"44,-90v0,-26,53,-11,86,-15v14,-1,21,9,13,18v-20,8,-55,4,-84,4v-9,0,-14,-2,-15,-7","w":110},"\u2212":{"d":"44,-90v0,-26,53,-11,86,-15v14,-1,21,9,13,18v-20,8,-55,4,-84,4v-9,0,-14,-2,-15,-7","w":110},"\u00c0":{"d":"476,-62v0,26,12,38,35,38v23,0,50,-12,79,-39v7,-6,23,-2,12,7v-31,24,-63,47,-99,49v-37,2,-63,-40,-38,-73v-66,39,-159,88,-251,88v-102,0,-181,-79,-140,-178v48,-117,186,-182,348,-182v77,0,194,41,147,111v-7,10,-24,20,-44,25v-11,-14,42,-31,34,-41v-6,-64,-88,-79,-156,-79v-138,0,-270,64,-307,159v-38,96,27,170,133,170v76,0,224,-62,287,-132v6,-7,23,-4,14,5v-15,16,-54,49,-54,72xm467,-402v38,-10,56,44,95,58v6,4,13,10,4,11v-40,-13,-70,-41,-99,-69"},"\u00c2":{"d":"13,-14v15,-58,78,-113,146,-107v12,1,10,15,2,22v-6,3,-26,22,-39,13v3,-5,27,-15,26,-24v-38,-14,-111,46,-116,95v33,14,76,-57,107,-52v25,4,-5,32,-9,43r-125,183v12,-9,22,-18,31,-10v-14,14,-49,43,-66,45v-12,-11,20,-34,25,-47r124,-179v8,-12,13,-17,9,-21v-27,11,-73,67,-110,50v-4,-2,-6,-5,-5,-11","w":127},"\u00c3":{"d":"120,-97v28,10,54,-26,65,-17v-13,27,-78,91,-66,97v27,14,63,-33,82,-42r88,-74v23,-14,32,-55,63,-48v-2,22,-24,33,-40,45v-20,53,-19,136,-90,134v-10,0,-18,-2,-18,-9v-4,-5,15,-32,35,-38v9,10,-24,21,-15,30v40,-9,51,-58,68,-103r-115,95v-28,20,-43,31,-72,25v-11,-35,31,-61,49,-89v-14,8,-30,12,-47,7v-39,41,-71,74,-97,98v-3,3,-11,5,-14,1v35,-39,76,-73,103,-106v5,-26,38,-78,59,-64v-2,25,-27,41,-38,58","w":279},"\u00c4":{"d":"564,-341v2,-9,19,-27,31,-19v-2,6,-19,30,-31,19xm537,-359v5,-6,18,-28,32,-19v-3,7,-20,30,-32,19xm214,8v-102,0,-181,-79,-140,-178v48,-117,186,-182,348,-182v74,0,187,36,150,106v-6,12,-24,24,-47,30v-11,-14,42,-31,34,-41v-6,-64,-88,-79,-156,-79v-138,0,-270,64,-307,159v-38,96,27,170,133,170v76,0,224,-62,287,-132v6,-7,23,-4,14,5v-15,16,-54,49,-54,72v0,26,12,38,35,38v23,0,50,-12,79,-39v7,-6,23,-2,12,7v-31,24,-63,47,-99,49v-37,2,-63,-40,-38,-73v-66,39,-159,88,-251,88"},"\u00c5":{"d":"582,-370v-1,-18,-25,-4,-32,-7v-21,6,-34,27,-12,32v14,3,42,-11,44,-25xm476,-62v0,26,12,38,35,38v23,0,50,-12,79,-39v7,-6,23,-2,12,7v-31,24,-63,47,-99,49v-37,2,-63,-40,-38,-73v-66,39,-159,88,-251,88v-102,0,-181,-79,-140,-178v48,-117,186,-182,348,-182v77,0,194,41,147,111v-7,10,-24,20,-44,25v-11,-14,42,-31,34,-41v-6,-64,-88,-79,-156,-79v-138,0,-270,64,-307,159v-38,96,27,170,133,170v76,0,224,-62,287,-132v6,-7,23,-4,14,5v-15,16,-54,49,-54,72xm559,-384v19,-13,44,4,27,23v-10,19,-57,37,-68,11v-2,-21,20,-33,41,-34"},"\u00c6":{"d":"691,-360v51,0,118,11,128,59v2,12,-12,26,-25,18v24,-49,-71,-64,-117,-64v-73,0,-150,30,-174,79v-10,49,35,70,84,58v3,0,5,1,5,2v-1,10,-14,11,-26,13v-53,7,-97,26,-129,59v-22,22,-55,70,-26,111v15,21,40,34,77,34v51,0,110,-25,179,-77v3,-4,25,-4,13,4v-86,60,-139,91,-215,85v-30,-3,-53,-13,-68,-31v-24,-13,-28,-43,-14,-70v-57,45,-125,87,-203,89v-90,2,-144,-88,-113,-179v38,-110,142,-181,281,-181v66,0,153,40,122,107v-5,12,-20,23,-38,29v-11,-14,34,-31,28,-41v-19,-119,-225,-80,-290,-28v-52,42,-94,81,-94,160v0,74,41,118,116,118v53,0,136,-43,200,-96v29,-46,84,-78,135,-95v-45,-7,-59,-60,-28,-94v36,-39,120,-69,192,-69","w":680},"\u00c9":{"d":"220,-210v-52,-6,-75,-58,-35,-93v72,-62,253,-94,362,-46v19,9,31,16,33,35v2,13,-15,26,-30,19v19,-20,-6,-38,-28,-46v-95,-31,-208,-21,-288,22v-35,18,-59,44,-36,77v17,26,65,21,102,22v-2,9,-16,14,-31,12v-78,9,-136,36,-179,77v-62,59,-6,128,82,128v62,0,135,-26,221,-78v4,-3,31,-4,16,5v-95,56,-175,86,-243,86v-85,0,-159,-51,-113,-122v34,-52,103,-80,167,-98xm292,-420v4,0,8,3,5,7v-19,26,-37,62,-69,72v-8,-1,-7,-5,-1,-10v22,-17,27,-33,43,-60v3,-5,11,-8,22,-9","w":417},"\u00ca":{"w":93},"\u00d6":{"d":"552,-342v3,-8,18,-27,32,-19v-3,5,-20,30,-32,19xm526,-359v2,-9,19,-27,31,-20v-3,6,-16,29,-31,20xm544,-277v2,16,-13,35,-30,25v35,-55,-59,-91,-118,-88v-130,5,-307,74,-307,205v0,116,144,167,261,115v102,-45,173,-86,216,-170v19,-38,9,-101,-25,-114v-1,-2,2,-4,7,-7v35,-10,49,28,51,64v2,42,-17,82,-55,120v-69,68,-182,138,-311,141v-106,3,-197,-79,-156,-189v38,-102,185,-179,323,-179v69,0,138,19,144,77","w":524},"\u00d8":{"d":"435,-336v-152,-17,-333,62,-346,201v-6,64,55,119,114,132v19,-30,51,-77,95,-140xm528,-133v41,-39,72,-136,13,-171v-1,-2,2,-4,7,-7v35,-10,49,28,51,64v2,42,-16,83,-55,120v-74,71,-190,145,-334,140v-6,7,-11,19,-18,24v-10,-6,-4,-14,3,-27v-86,-13,-155,-88,-118,-185v39,-102,186,-172,323,-179v16,0,31,2,45,4v7,-7,10,-20,20,-24v9,6,4,15,-4,27v40,8,82,30,83,70v1,16,-13,35,-30,25v31,-38,-26,-71,-63,-81r-151,212v-34,48,-61,88,-82,121v131,8,248,-74,310,-133","w":524},"\u00dc":{"d":"404,-374v9,2,5,3,-1,12v-5,7,-16,18,-27,11v2,-11,16,-25,28,-23xm409,-324v5,-11,18,-30,33,-21v-1,7,-20,33,-33,21xm-52,-338v99,-36,281,-41,281,75v0,94,-110,142,-110,230v0,10,3,15,11,15v88,-23,197,-157,271,-208v16,-12,39,-37,60,-38v9,0,12,9,7,17v-33,56,-116,127,-140,187v-9,23,-1,47,23,46v17,0,35,-10,54,-30v2,-4,21,-8,26,-3v-25,28,-51,47,-88,47v-97,0,-8,-116,18,-146r74,-87r-180,156v-37,33,-107,80,-145,73v-32,-6,-11,-58,1,-77v31,-50,85,-104,91,-171v-16,-146,-271,-97,-335,-24v-20,23,-33,40,-33,57v0,22,13,38,34,33v17,-4,15,9,3,12v-34,10,-72,-5,-66,-36v12,-68,79,-105,143,-128","w":387},"\u00df":{"d":"169,-154v35,5,62,39,62,79v0,64,-64,108,-129,83v-20,-8,-35,-16,-51,-29v0,-5,3,-7,8,-7v48,48,161,38,161,-42v0,-49,-39,-75,-91,-74v-10,-13,7,-14,23,-18v30,-7,45,-26,45,-56v1,-24,-20,-58,-43,-57v-9,0,-20,6,-36,20v-64,121,-120,285,-175,417v-4,11,-17,9,-18,-1r157,-385v13,-26,33,-67,73,-67v33,0,55,40,54,75v0,30,-18,52,-40,62","w":210},"\u00e0":{"d":"90,-211v18,-13,34,16,50,28v10,8,27,15,34,25v1,3,0,4,-4,4v-33,-11,-57,-32,-80,-57xm176,-126v2,12,-17,29,-29,20v1,-4,13,-10,10,-15v-50,-3,-120,53,-132,106v33,7,93,-51,116,-76v2,-3,16,-6,20,-2v-21,28,-49,45,-47,82v27,-8,59,-48,96,-48v1,1,0,3,-3,5v-43,23,-65,48,-101,59v-23,-1,-15,-24,-6,-41v-35,25,-59,37,-73,37v-34,-9,-15,-34,9,-64v37,-46,71,-73,124,-73v11,0,16,4,16,10","w":173},"\u00e4":{"d":"173,-153v2,-9,19,-27,31,-20v-3,6,-16,29,-31,20xm136,-156v4,-7,19,-27,32,-19v-3,7,-20,30,-32,19xm176,-126v2,12,-17,29,-29,20v1,-4,13,-10,10,-15v-50,-3,-120,53,-132,106v33,7,93,-51,116,-76v2,-3,16,-6,20,-2v-21,28,-49,45,-47,82v27,-8,59,-48,96,-48v1,1,0,3,-3,5v-43,23,-65,48,-101,59v-23,-1,-15,-24,-6,-41v-35,25,-59,37,-73,37v-34,-9,-15,-34,9,-64v37,-46,71,-73,124,-73v11,0,16,4,16,10","w":180},"\u00e5":{"d":"212,-171v-11,-13,-61,10,-34,22v12,1,35,-6,34,-22xm176,-126v2,12,-17,29,-29,20v1,-4,13,-10,10,-15v-50,-3,-120,53,-132,106v33,7,93,-51,116,-76v2,-3,16,-6,20,-2v-21,28,-49,45,-47,82v27,-8,59,-48,96,-48v1,1,0,3,-3,5v-43,23,-65,48,-101,59v-23,-1,-15,-24,-6,-41v-35,25,-59,37,-73,37v-34,-9,-15,-34,9,-64v37,-46,71,-73,124,-73v11,0,16,4,16,10xm195,-180v15,-11,35,1,23,19v-9,14,-47,31,-57,10v-2,-18,17,-29,34,-29","w":181},"\u00e6":{"d":"150,-103v-10,-5,12,-11,7,-18v-50,-3,-120,53,-132,106v38,5,102,-57,125,-88xm171,-71v-14,2,-25,-8,-30,1v-12,11,-32,40,-27,59r6,-4v2,-19,19,-38,51,-56xm254,-134v-30,-3,-96,28,-95,45v6,18,43,-5,57,3v-23,21,-69,35,-80,68v2,5,3,11,11,10v29,0,127,-76,149,-100v2,-3,13,-6,16,-2v-33,38,-79,67,-121,96v-22,16,-46,25,-67,13v-14,8,-32,10,-33,-8v0,-7,3,-16,9,-27v-35,25,-59,37,-73,37v-34,-9,-15,-34,9,-64v37,-46,71,-73,124,-73v13,0,17,4,16,14v22,-10,68,-35,97,-20v0,10,-28,33,-39,24v-1,-6,23,-15,20,-16","w":234},"\u00e9":{"d":"122,-200v-12,21,-35,62,-63,69v-8,-1,-5,-6,0,-10v28,-14,22,-56,58,-62v3,0,5,1,5,3xm43,-72v11,13,45,-5,57,0v-17,19,-76,41,-78,68v0,7,3,11,9,11v29,0,127,-77,149,-100v3,-3,11,-5,16,-3v-32,39,-80,66,-121,97v-16,12,-32,17,-45,18v-36,2,-29,-31,-9,-50v9,-9,21,-18,34,-26v-28,2,-42,-13,-18,-34v20,-17,62,-40,103,-41v24,-1,20,10,7,20v-12,9,-21,15,-29,8v0,-6,33,-15,15,-17v-27,3,-102,36,-90,49","w":120},"\u00eb":{"w":360},"\u00f6":{"d":"159,-150v5,-7,17,-26,32,-20v-3,6,-18,29,-32,20xm123,-153v3,-8,18,-27,32,-19v-3,7,-20,30,-32,19xm130,-112v-9,-2,-46,32,-41,49v1,5,6,7,14,6v14,-19,27,-27,31,-51v0,-2,-2,-4,-4,-4xm142,-126v34,7,9,32,-12,61v20,0,51,-34,71,-32v-21,22,-52,43,-87,50v-21,21,-64,49,-88,49v-19,0,-29,-13,-23,-33v8,-26,83,-109,113,-95v1,3,-2,5,-8,8v-31,16,-88,56,-90,101v15,20,60,-17,71,-27v-21,3,-27,-11,-21,-29v7,-21,53,-57,74,-53","w":135},"\u00f8":{"d":"89,-44v-11,1,-19,-1,-22,-7r-24,37v17,-7,37,-19,46,-30xm97,-113v-29,21,-77,53,-79,96v1,4,4,6,9,6r39,-56v0,-14,25,-33,31,-46xm130,-112v-9,-2,-46,32,-41,49v1,5,6,7,14,6v14,-19,27,-27,31,-51v0,-2,-2,-4,-4,-4xm142,-126v34,8,9,32,-12,61v-19,26,-69,64,-98,66v-8,11,-13,25,-23,34v-10,-9,-1,-14,10,-34v-14,-1,-20,-15,-16,-32v6,-26,81,-96,104,-98v9,-11,15,-26,26,-35v5,0,4,10,2,14v-4,7,-11,17,-23,33v11,-6,21,-9,30,-9","w":135},"\u00fc":{"d":"150,-158v5,-6,18,-28,32,-19v-3,7,-20,30,-32,19xm114,-160v3,-9,17,-25,32,-20v-3,6,-17,29,-32,20xm175,-125v-7,18,-83,100,-64,110v30,-13,58,-35,85,-63v3,-4,12,-6,14,-2v-19,31,-81,75,-112,80v-25,-8,7,-51,21,-73v-29,21,-57,61,-95,69v-37,-26,37,-84,49,-112v-11,4,-23,11,-36,9v3,-14,48,-29,65,-27v-17,32,-85,110,-70,114v50,-23,85,-68,124,-103v3,-4,15,-6,19,-2","w":157},"\u2019":{"d":"202,-349v-14,28,-46,79,-82,90v-9,-1,-8,-7,-1,-13v26,-18,38,-47,52,-72v4,-5,23,-12,31,-5","w":57},"\u201c":{"d":"152,-342v-3,-2,-5,-9,2,-8v35,3,46,29,68,48v12,10,40,21,52,37v-15,11,-52,-23,-71,-35v-10,-6,-26,-21,-51,-42xm203,-341v31,-11,48,27,73,44v8,8,38,23,51,37v0,7,-10,3,-16,0v-39,-19,-78,-50,-108,-81","w":220},"\u201d":{"d":"197,-344v-14,27,-44,74,-78,85v-9,-2,-7,-6,0,-12v26,-22,30,-34,47,-66v4,-5,22,-14,31,-7xm248,-349v-14,26,-45,75,-78,84v-8,-1,-7,-5,-1,-11v23,-19,35,-45,50,-69v5,-4,22,-11,29,-4","w":102}}});